Language model created by QuickLM on Tue Jun  7 10:32:14 EDT 2022
Copyright (c) 1996-2010 Carnegie Mellon University and Alexander I. Rudnicky

The model is in standard ARPA format, designed by Doug Paul while he was at MITRE.

The code that was used to produce this language model is available in Open Source.
Please visit http://www.speech.cs.cmu.edu/tools/ for more information

The (fixed) discount mass is 0.5. The backoffs are computed using the ratio method.
This model based on a corpus of 2 sentences and 5 words

\data\
ngram 1=5
ngram 2=5
ngram 3=4

\1-grams:
-1.2041 1OPEN -0.2430
-1.2041 2CLOSE -0.2430
-0.9031 </s> -0.3010
-0.9031 <s> -0.2430
-0.9031 YOUTUBE -0.2430

\2-grams:
-0.3010 1OPEN YOUTUBE 0.0000
-0.3010 2CLOSE YOUTUBE 0.0000
-0.6021 <s> 1OPEN 0.0000
-0.6021 <s> 2CLOSE 0.0000
-0.3010 YOUTUBE </s> -0.3010

\3-grams:
-0.3010 1OPEN YOUTUBE </s>
-0.3010 2CLOSE YOUTUBE </s>
-0.3010 <s> 1OPEN YOUTUBE
-0.3010 <s> 2CLOSE YOUTUBE

\end\